import cv2

# Initialize the HOG descriptor for human detection
hog = cv2.HOGDescriptor()
hog.setSVMDetector(cv2.HOGDescriptor_getDefaultPeopleDetector())

# Start video capture from the camera
cap = cv2.VideoCapture(0, cv2.CAP_DSHOW)  # Use CAP_DSHOW for Windows

# Check if the camera is accessible
if not cap.isOpened():
    print("Error: Camera not accessible!")
    exit()

while True:
    # Capture a frame
    ret, frame = cap.read()
    if not ret:
        print("Error: Couldn't read from the camera.")
        break

    # Resize the frame for faster processing
    frame_resized = cv2.resize(frame, (640, 480))

    # Detect humans
    (boxes, weights) = hog.detectMultiScale(frame_resized, winStride=(8, 8), padding=(16, 16), scale=1.05)

    # Draw bounding boxes
    for (x, y, w, h) in boxes:
        cv2.rectangle(frame_resized, (x, y), (x + w, y + h), (0, 255, 0), 2)

    # Try displaying the frame using cv2.imshow
    try:
        cv2.imshow("Human Detection", frame_resized)
    except cv2.error as e:
        print("Error displaying the frame:", e)
        break

    # Exit the loop if 'q' is pressed
    if cv2.waitKey(1) & 0xFF == ord('q'):
        break

# Release the video capture and close windows
cap.release()
cv2.destroyAllWindows()
